1.98 1.72 9.51 0.1900 -0.1000 0.0200 0.0722 0.1422 0.0378 1.76 1.77 9.48 196 309 334 317 208 
1.66 2.58 10.93 -0.2700 0.6700 1.8500 3.3056 -1.1356 -0.4278 1.88 3.70 8.88 20 313 343 356 213 
3.18 3.49 6.75 0.7400 1.7400 -1.5400 -3.2389 0.5556 2.8733 2.66 0.10 9.43 192 359 183 189 186 
-1.17 -4.25 2.50 -1.2600 0.2900 -4.8200 -0.5533 2.2267 -0.9600 -0.73 -3.99 8.92 194 377 182 191 184 
1.77 -5.20 11.75 2.5000 -3.0000 3.2800 0.4267 -0.6456 1.2744 -1.00 -3.22 9.20 196 382 179 193 186 
-4.19 -6.38 13.93 -2.7600 -1.1400 4.5400 -3.0489 -0.0356 0.9033 -1.58 -5.76 7.77 200 387 182 197 189 
-5.29 -4.59 5.31 -3.2300 3.5100 -1.3900 -2.1356 0.5689 -1.4422 -1.12 -8.53 4.69 200 395 184 196 186 
-0.59 -2.60 1.79 -0.0400 5.9200 -1.8900 -0.0967 2.2200 -1.7511 0.55 -8.94 3.97 198 390 184 200 189 
3.87 -3.33 5.11 3.6400 4.8900 0.3200 1.5033 0.8300 -0.2767 0.66 -7.72 6.00 198 384 189 200 189 
4.33 -6.10 10.06 4.0900 -0.0800 2.5500 2.6967 -0.3789 1.1767 -0.08 -4.97 8.44 198 383 189 199 188 
0.58 -7.23 14.04 -0.8500 -3.5200 4.0000 -0.6522 -0.4533 2.1100 -0.47 -4.14 8.87 199 384 186 199 188 
-3.88 -2.81 8.32 -3.7400 2.2100 -1.6300 -0.4667 -0.5478 0.4467 -0.26 -4.98 8.43 199 380 190 200 188 
-0.71 -1.54 11.43 -0.1700 2.4400 4.9000 1.0822 -5.1756 3.4467 2.45 -3.66 8.75 200 347 241 246 202 
5.02 -6.93 9.96 1.1000 0.8500 1.4300 -4.1111 1.8478 2.2267 1.83 -8.11 5.18 197 388 323 354 213 
-1.26 -5.58 1.37 -1.5400 3.6200 -0.7200 -2.3722 0.9689 0.0256 -0.21 -9.65 1.68 203 404 355 398 217 
5.14 -10.04 -7.87 3.3300 -1.0500 -8.0100 1.0578 -0.4900 -0.0856 0.75 -9.75 0.69 205 416 367 402 219 
1.95 -7.65 -1.65 1.4700 1.5400 -4.7900 4.4167 -1.2500 0.5567 0.73 -8.15 5.39 207 414 362 406 219 
0.38 0.23 4.22 -0.9200 4.8900 -5.5600 6.3622 -1.5089 0.3589 1.41 -0.96 9.65 209 417 365 404 219 
0.43 10.46 7.31 -1.6900 6.8400 1.3800 5.0256 0.8233 -0.2133 0.88 6.78 7.02 208 414 369 404 219 
-0.47 13.90 12.64 -1.0200 5.4500 5.4100 -1.2733 -3.0122 0.9578 1.62 7.65 5.91 208 403 367 391 217 
2.94 9.19 5.56 -2.5600 2.6400 -2.3600 -3.7622 -5.4789 2.4222 7.19 3.39 5.73 197 267 289 341 216 
2.46 -4.12 -4.74 -5.5100 -2.7100 -4.1900 -0.1922 -10.4133 5.2067 6.90 -3.42 -6.06 192 239 250 300 209 
2.47 -3.17 -12.29 0.7900 -1.8300 -2.5500 -2.9067 -1.7789 -0.3667 1.85 0.38 -9.62 202 262 252 306 219 
6.23 -1.80 -14.66 4.5100 -2.6800 -4.8100 1.4889 0.5689 0.1656 1.43 0.13 -9.70 202 277 256 322 223 
3.20 -3.58 -13.52 0.6200 -0.9900 -3.9100 3.7889 1.5300 0.5189 2.41 -4.26 -8.49 202 328 320 380 226 
3.10 -3.13 -0.82 -2.6300 4.4300 2.0000 3.0678 2.5911 -0.1689 5.09 -8.26 -1.40 207 406 373 404 224 
2.32 -3.92 -0.30 -2.5200 4.2600 0.4200 -0.2022 0.1956 -0.3267 5.33 -8.19 -0.72 207 403 372 402 226 
;
