1.49 -1.18 9.63 -0.0100 -0.0700 0.0000 0.1033 -0.0400 0.0044 1.65 -1.02 9.61 175 314 303 293 199 
1.59 -0.92 9.92 -0.1900 -0.1400 0.0200 0.0578 -0.0111 0.0111 1.64 -1.04 9.61 175 311 299 295 200 
1.64 -1.11 9.61 -0.0500 -0.1100 0.0700 -0.0422 0.0167 -0.0022 1.64 -1.07 9.60 173 312 304 294 198 
1.60 -1.14 9.51 -0.0700 -0.1200 0.0200 0.0233 -0.0067 0.0033 1.64 -1.06 9.60 175 313 302 297 199 
1.64 -1.19 9.59 -0.0300 -0.1400 0.0000 -0.0033 -0.0056 -0.0089 1.64 -1.07 9.60 177 310 300 298 203 
2.69 1.98 12.95 0.5500 2.4600 5.0000 1.6311 -1.5933 0.2233 1.51 -0.86 9.65 183 291 145 169 154 
-3.71 -11.73 -0.30 -3.0900 -3.7300 -7.5600 -2.2911 0.3022 -0.4333 1.43 -6.55 7.14 184 335 155 175 153 
2.76 0.17 3.25 1.6600 6.7400 -3.4600 1.5789 0.8444 -0.4089 1.53 -5.83 7.72 188 343 162 175 156 
7.89 -4.57 13.63 5.7100 -1.9500 5.1900 1.7144 -0.7033 3.2567 0.99 -3.33 9.16 190 342 168 187 157 
-7.05 -8.14 15.62 -7.4600 -2.3300 5.3900 -4.1867 -0.4311 1.8122 -0.09 -6.50 7.33 192 353 169 192 155 
-6.60 -3.96 3.39 -6.3000 6.3600 -1.1000 -2.4344 1.2722 -1.4333 0.45 -9.27 3.15 189 359 171 196 161 
0.19 1.04 -0.25 -0.9700 10.2200 -3.0100 0.9333 1.8778 -2.5878 3.46 -8.58 3.23 192 360 176 197 158 
9.46 -1.19 5.46 5.5200 5.2500 -0.3400 4.0311 1.6189 0.1878 3.17 -5.36 7.56 190 358 171 198 162 
6.14 -4.74 19.80 3.7300 -1.7900 10.7500 0.0989 -0.2744 3.3767 1.19 -3.27 9.16 189 359 181 197 160 
-6.89 -5.98 8.45 -7.1500 -0.6800 -0.4000 -0.7078 -0.6811 0.8211 0.91 -4.92 8.43 188 313 186 200 167 
7.15 0.13 15.60 11.1100 4.7200 13.4800 -1.1044 -6.1744 2.7889 7.12 -5.30 4.15 160 284 284 296 193 
3.28 -1.12 -6.79 -5.1600 8.2100 -8.1200 -4.7467 2.7778 3.3389 2.31 -9.48 -0.94 177 316 280 319 198 
0.27 -2.30 -11.14 -1.4200 7.5800 -9.4600 3.1189 1.6522 -0.2689 1.89 -9.62 0.10 179 323 291 326 199 
0.75 3.71 -3.60 -0.8800 12.1000 -9.6500 9.3300 -1.6633 -0.3989 2.90 -3.09 8.83 178 322 294 319 201 
5.77 20.93 38.85 -3.4800 11.1600 24.2200 -2.0056 -1.6867 0.0300 3.03 3.18 8.76 179 342 300 330 202 
1.51 2.47 8.79 -2.1500 1.0600 0.5200 -1.6333 -4.4578 -0.2122 6.20 0.59 7.56 178 274 284 307 202 
2.13 1.11 -2.07 -8.3600 3.4500 -2.3800 -3.4567 -11.4333 3.8144 6.87 -3.19 -6.22 174 223 194 220 194 
3.40 -4.03 -12.56 2.7000 -1.5200 -6.0900 -1.7422 0.1489 0.9811 2.72 -2.21 -9.15 182 244 217 254 203 
6.81 -8.85 -16.97 2.2800 -5.0500 -7.6400 2.7811 -0.2867 1.9856 2.35 -4.23 -8.52 185 270 245 281 209 
2.17 0.23 -3.15 -2.4600 12.2700 4.2600 3.6722 2.1811 -0.3733 2.70 -9.02 -2.73 192 326 296 329 206 
1.94 -3.14 0.67 -1.2000 5.6200 2.8400 -0.1356 0.2689 -0.4567 3.41 -8.93 -2.14 189 319 288 331 212 
4.56 -1.33 -1.04 1.1900 5.3200 1.8100 -1.8811 3.7978 -2.8422 6.25 -7.15 -2.41 190 293 273 319 209 
15.79 -6.23 -0.25 6.2200 -2.8500 -2.3000 -3.0089 10.6689 -3.3100 7.85 -2.97 5.05 183 273 275 302 206 
;
